{
    "ih.weight": [
        [
            0.44468533992767334,
            0.45180678367614746,
            0.2957586646080017,
            -0.5363112092018127
        ],
        [
            0.0461413748562336,
            0.24012558162212372,
            -0.8815212249755859,
            -0.4497365951538086
        ]
    ],
    "hh.weight": [
        [
            -0.45199647545814514,
            0.07279299199581146,
            0.27311286330223083,
            0.5204378366470337
        ],
        [
            0.18991033732891083,
            -0.33335939049720764,
            0.5169609189033508,
            -0.6587672829627991
        ],
        [
            -0.32971078157424927,
            -0.5328399538993835,
            -0.2753671109676361,
            0.046879302710294724
        ],
        [
            -0.5846983194351196,
            0.28166618943214417,
            -0.10213488340377808,
            -0.26432904601097107
        ]
    ],
    "fc.weight": [
        [
            -0.022412829101085663,
            0.9844465255737305
        ],
        [
            0.7855031490325928,
            -0.5344277024269104
        ],
        [
            0.5350082516670227,
            -1.1810760498046875
        ],
        [
            -0.15166941285133362,
            -0.233982652425766
        ]
    ],
    "ih.bias": [
        [
            0.01772918365895748,
            0.12789860367774963,
            -0.03771984577178955,
            0.08740586787462234
        ]
    ],
    "hh.bias": [
        [
            0.045970577746629715,
            0.05718178674578667,
            -0.1037435308098793,
            0.008553425781428814
        ]
    ],
    "fc.bias": [
        [
            0.06038016825914383,
            0.10262932628393173
        ]
    ],
    "c0_list": [
        [
            [
                [
                    0.3179871737957001,
                    0.006549219600856304,
                    -0.08415358513593674,
                    0.03555898368358612
                ]
            ]
        ],
        [
            [
                [
                    0.012963207438588142,
                    -0.11554582417011261,
                    0.025010261684656143,
                    0.34321141242980957
                ]
            ]
        ]
    ]
}